digraph Tree {
node [shape=box, style="filled, rounded", color="black", fontname=helvetica] ;
edge [fontname=helvetica] ;
0 [label="X[2] <= 0.971\nentropy = 0.811\nsamples = 40560\nvalue = [[30520, 10040]\n[30391, 10169]\n[30341, 10219]\n[30428, 10132]]", fillcolor="#ffffff"] ;
1 [label="X[0] <= 0.615\nentropy = 0.661\nsamples = 20421\nvalue = [[20291, 130]\n[16682, 3739]\n[13902, 6519]\n[10388, 10033]]", fillcolor="#fae8da"] ;
0 -> 1 [labeldistance=2.5, labelangle=45, headlabel="True"] ;
2 [label="X[2] <= 0.816\nentropy = 0.429\nsamples = 4229\nvalue = [[4134, 95]\n[998, 3231]\n[3338, 891]\n[4217, 12]]", fillcolor="#f3c4a2"] ;
1 -> 2 ;
3 [label="X[2] <= 0.568\nentropy = 0.137\nsamples = 918\nvalue = [[910, 8]\n[901, 17]\n[37, 881]\n[906, 12]]", fillcolor="#e9965b"] ;
2 -> 3 ;
4 [label="X[0] <= 0.499\nentropy = 0.515\nsamples = 33\nvalue = [[33, 0]\n[32, 1]\n[12, 21]\n[22, 11]]", fillcolor="#f6d1b7"] ;
3 -> 4 ;
5 [label="entropy = 0.0\nsamples = 21\nvalue = [[21, 0]\n[21, 0]\n[0, 21]\n[21, 0]]", fillcolor="#e58139"] ;
4 -> 5 ;
6 [label="X[0] <= 0.59\nentropy = 0.207\nsamples = 12\nvalue = [[12, 0]\n[11, 1]\n[12, 0]\n[1, 11]]", fillcolor="#eca16b"] ;
4 -> 6 ;
7 [label="entropy = 0.0\nsamples = 1\nvalue = [[1, 0]\n[0, 1]\n[1, 0]\n[1, 0]]", fillcolor="#e58139"] ;
6 -> 7 ;
8 [label="entropy = 0.0\nsamples = 11\nvalue = [[11, 0]\n[11, 0]\n[11, 0]\n[0, 11]]", fillcolor="#e58139"] ;
6 -> 8 ;
9 [label="X[0] <= 0.306\nentropy = 0.101\nsamples = 885\nvalue = [[877, 8]\n[869, 16]\n[25, 860]\n[884, 1]]", fillcolor="#e89152"] ;
3 -> 9 ;
10 [label="X[2] <= 0.623\nentropy = 0.61\nsamples = 7\nvalue = [[5, 2]\n[3, 4]\n[6, 1]\n[7, 0]]", fillcolor="#f9e0ce"] ;
9 -> 10 ;
11 [label="entropy = 0.0\nsamples = 1\nvalue = [[1, 0]\n[1, 0]\n[0, 1]\n[1, 0]]", fillcolor="#e58139"] ;
10 -> 11 ;
12 [label="entropy = 0.459\nsamples = 6\nvalue = [[4, 2]\n[2, 4]\n[6, 0]\n[6, 0]]", fillcolor="#f4c8a9"] ;
10 -> 12 ;
13 [label="X[2] <= 0.782\nentropy = 0.082\nsamples = 878\nvalue = [[872, 6]\n[866, 12]\n[19, 859]\n[877, 1]]", fillcolor="#e88e4d"] ;
9 -> 13 ;
14 [label="entropy = 0.052\nsamples = 818\nvalue = [[815, 3]\n[812, 6]\n[10, 808]\n[817, 1]]", fillcolor="#e78946"] ;
13 -> 14 ;
15 [label="entropy = 0.341\nsamples = 60\nvalue = [[57, 3]\n[54, 6]\n[9, 51]\n[60, 0]]", fillcolor="#f0b68c"] ;
13 -> 15 ;
16 [label="X[2] <= 0.961\nentropy = 0.099\nsamples = 3311\nvalue = [[3224, 87]\n[97, 3214]\n[3301, 10]\n[3311, 0]]", fillcolor="#e89051"] ;
2 -> 16 ;
17 [label="X[0] <= 0.542\nentropy = 0.045\nsamples = 2721\nvalue = [[2701, 20]\n[29, 2692]\n[2712, 9]\n[2721, 0]]", fillcolor="#e68844"] ;
16 -> 17 ;
18 [label="X[1] <= 0.766\nentropy = 0.029\nsamples = 2586\nvalue = [[2569, 17]\n[17, 2569]\n[2586, 0]\n[2586, 0]]", fillcolor="#e68540"] ;
17 -> 18 ;
19 [label="entropy = 0.058\nsamples = 1031\nvalue = [[1015, 16]\n[16, 1015]\n[1031, 0]\n[1031, 0]]", fillcolor="#e78a47"] ;
18 -> 19 ;
20 [label="entropy = 0.004\nsamples = 1555\nvalue = [[1554, 1]\n[1, 1554]\n[1555, 0]\n[1555, 0]]", fillcolor="#e5823a"] ;
18 -> 20 ;
21 [label="X[2] <= 0.924\nentropy = 0.235\nsamples = 135\nvalue = [[132, 3]\n[12, 123]\n[126, 9]\n[135, 0]]", fillcolor="#eda572"] ;
17 -> 21 ;
22 [label="entropy = 0.342\nsamples = 11\nvalue = [[9, 2]\n[11, 0]\n[2, 9]\n[11, 0]]", fillcolor="#f0b68c"] ;
21 -> 22 ;
23 [label="entropy = 0.034\nsamples = 124\nvalue = [[123, 1]\n[1, 123]\n[124, 0]\n[124, 0]]", fillcolor="#e68641"] ;
21 -> 23 ;
24 [label="X[0] <= 0.388\nentropy = 0.261\nsamples = 590\nvalue = [[523, 67]\n[68, 522]\n[589, 1]\n[590, 0]]", fillcolor="#edaa79"] ;
16 -> 24 ;
25 [label="X[0] <= 0.322\nentropy = 0.275\nsamples = 55\nvalue = [[7, 48]\n[48, 7]\n[55, 0]\n[55, 0]]", fillcolor="#eeac7c"] ;
24 -> 25 ;
26 [label="entropy = 0.0\nsamples = 35\nvalue = [[0, 35]\n[35, 0]\n[35, 0]\n[35, 0]]", fillcolor="#e58139"] ;
25 -> 26 ;
27 [label="entropy = 0.467\nsamples = 20\nvalue = [[7, 13]\n[13, 7]\n[20, 0]\n[20, 0]]", fillcolor="#f4caab"] ;
25 -> 27 ;
28 [label="X[4] <= 0.07\nentropy = 0.118\nsamples = 535\nvalue = [[516, 19]\n[20, 515]\n[534, 1]\n[535, 0]]", fillcolor="#e99356"] ;
24 -> 28 ;
29 [label="entropy = 0.08\nsamples = 516\nvalue = [[504, 12]\n[12, 504]\n[516, 0]\n[516, 0]]", fillcolor="#e88d4c"] ;
28 -> 29 ;
30 [label="entropy = 0.557\nsamples = 19\nvalue = [[12, 7]\n[8, 11]\n[18, 1]\n[19, 0]]", fillcolor="#f7d8c1"] ;
28 -> 30 ;
31 [label="X[2] <= 0.839\nentropy = 0.529\nsamples = 16192\nvalue = [[16157, 35]\n[15684, 508]\n[10564, 5628]\n[6171, 10021]]", fillcolor="#f6d3ba"] ;
1 -> 31 ;
32 [label="X[0] <= 0.78\nentropy = 0.266\nsamples = 6990\nvalue = [[6985, 5]\n[6940, 50]\n[6257, 733]\n[788, 6202]]", fillcolor="#eeaa7a"] ;
31 -> 32 ;
33 [label="X[2] <= 0.669\nentropy = 0.496\nsamples = 1558\nvalue = [[1557, 1]\n[1553, 5]\n[936, 622]\n[628, 930]]", fillcolor="#f5ceb2"] ;
32 -> 33 ;
34 [label="X[2] <= 0.652\nentropy = 0.029\nsamples = 936\nvalue = [[936, 0]\n[934, 2]\n[932, 4]\n[6, 930]]", fillcolor="#e68640"] ;
33 -> 34 ;
35 [label="entropy = 0.016\nsamples = 928\nvalue = [[928, 0]\n[927, 1]\n[926, 2]\n[3, 925]]", fillcolor="#e6843d"] ;
34 -> 35 ;
36 [label="entropy = 0.577\nsamples = 8\nvalue = [[8, 0]\n[7, 1]\n[6, 2]\n[3, 5]]", fillcolor="#f8dbc6"] ;
34 -> 36 ;
37 [label="X[2] <= 0.734\nentropy = 0.029\nsamples = 622\nvalue = [[621, 1]\n[619, 3]\n[4, 618]\n[622, 0]]", fillcolor="#e68640"] ;
33 -> 37 ;
38 [label="entropy = 0.5\nsamples = 4\nvalue = [[4, 0]\n[2, 2]\n[2, 2]\n[4, 0]]", fillcolor="#f5cfb3"] ;
37 -> 38 ;
39 [label="entropy = 0.017\nsamples = 618\nvalue = [[617, 1]\n[617, 1]\n[2, 616]\n[618, 0]]", fillcolor="#e6843d"] ;
37 -> 39 ;
40 [label="X[0] <= 1.537\nentropy = 0.103\nsamples = 5432\nvalue = [[5428, 4]\n[5387, 45]\n[5321, 111]\n[160, 5272]]", fillcolor="#e89152"] ;
32 -> 40 ;
41 [label="X[2] <= 0.622\nentropy = 0.065\nsamples = 5312\nvalue = [[5308, 4]\n[5286, 26]\n[5255, 57]\n[87, 5225]]", fillcolor="#e78b49"] ;
40 -> 41 ;
42 [label="entropy = 0.702\nsamples = 37\nvalue = [[35, 2]\n[29, 8]\n[29, 8]\n[18, 19]]", fillcolor="#fceee4"] ;
41 -> 42 ;
43 [label="entropy = 0.054\nsamples = 5275\nvalue = [[5273, 2]\n[5257, 18]\n[5226, 49]\n[69, 5206]]", fillcolor="#e78946"] ;
41 -> 43 ;
44 [label="X[0] <= 2.182\nentropy = 0.647\nsamples = 120\nvalue = [[120, 0]\n[101, 19]\n[66, 54]\n[73, 47]]", fillcolor="#fae6d7"] ;
40 -> 44 ;
45 [label="entropy = 0.635\nsamples = 73\nvalue = [[73, 0]\n[62, 11]\n[48, 25]\n[36, 37]]", fillcolor="#f9e4d4"] ;
44 -> 45 ;
46 [label="entropy = 0.591\nsamples = 47\nvalue = [[47, 0]\n[39, 8]\n[18, 29]\n[37, 10]]", fillcolor="#f8ddc9"] ;
44 -> 46 ;
47 [label="X[0] <= 1.377\nentropy = 0.573\nsamples = 9202\nvalue = [[9172, 30]\n[8744, 458]\n[4307, 4895]\n[5383, 3819]]", fillcolor="#f7dac5"] ;
31 -> 47 ;
48 [label="X[2] <= 0.955\nentropy = 0.361\nsamples = 2649\nvalue = [[2624, 25]\n[2267, 382]\n[448, 2201]\n[2608, 41]]", fillcolor="#f1b991"] ;
47 -> 48 ;
49 [label="X[0] <= 0.726\nentropy = 0.157\nsamples = 2286\nvalue = [[2278, 8]\n[2223, 63]\n[112, 2174]\n[2245, 41]]", fillcolor="#ea995f"] ;
48 -> 49 ;
50 [label="entropy = 0.598\nsamples = 50\nvalue = [[46, 4]\n[27, 23]\n[27, 23]\n[50, 0]]", fillcolor="#f8decb"] ;
49 -> 50 ;
51 [label="entropy = 0.128\nsamples = 2236\nvalue = [[2232, 4]\n[2196, 40]\n[85, 2151]\n[2195, 41]]", fillcolor="#e99558"] ;
49 -> 51 ;
52 [label="X[0] <= 1.271\nentropy = 0.297\nsamples = 363\nvalue = [[346, 17]\n[44, 319]\n[336, 27]\n[363, 0]]", fillcolor="#efaf81"] ;
48 -> 52 ;
53 [label="entropy = 0.187\nsamples = 338\nvalue = [[321, 17]\n[22, 316]\n[333, 5]\n[338, 0]]", fillcolor="#eb9e67"] ;
52 -> 53 ;
54 [label="entropy = 0.265\nsamples = 25\nvalue = [[25, 0]\n[22, 3]\n[3, 22]\n[25, 0]]", fillcolor="#edaa7a"] ;
52 -> 54 ;
55 [label="X[2] <= 0.936\nentropy = 0.515\nsamples = 6553\nvalue = [[6548, 5]\n[6477, 76]\n[3859, 2694]\n[2775, 3778]]", fillcolor="#f6d1b7"] ;
47 -> 55 ;
56 [label="X[0] <= 1.468\nentropy = 0.178\nsamples = 3154\nvalue = [[3154, 0]\n[3113, 41]\n[3002, 152]\n[193, 2961]]", fillcolor="#eb9d64"] ;
55 -> 56 ;
57 [label="entropy = 0.452\nsamples = 272\nvalue = [[272, 0]\n[266, 6]\n[204, 68]\n[74, 198]]", fillcolor="#f3c7a7"] ;
56 -> 57 ;
58 [label="entropy = 0.133\nsamples = 2882\nvalue = [[2882, 0]\n[2847, 35]\n[2798, 84]\n[119, 2763]]", fillcolor="#e9965a"] ;
56 -> 58 ;
59 [label="X[0] <= 2.371\nentropy = 0.427\nsamples = 3399\nvalue = [[3394, 5]\n[3364, 35]\n[857, 2542]\n[2582, 817]]", fillcolor="#f3c3a1"] ;
55 -> 59 ;
60 [label="entropy = 0.16\nsamples = 2380\nvalue = [[2376, 4]\n[2351, 29]\n[123, 2257]\n[2290, 90]]", fillcolor="#ea9a60"] ;
59 -> 60 ;
61 [label="entropy = 0.446\nsamples = 1019\nvalue = [[1018, 1]\n[1013, 6]\n[734, 285]\n[292, 727]]", fillcolor="#f3c6a6"] ;
59 -> 61 ;
62 [label="X[0] <= 1.686\nentropy = 0.659\nsamples = 20139\nvalue = [[10229, 9910]\n[13709, 6430]\n[16439, 3700]\n[20040, 99]]", fillcolor="#fae7da"] ;
0 -> 62 [labeldistance=2.5, labelangle=-45, headlabel="False"] ;
63 [label="X[0] <= 0.493\nentropy = 0.465\nsamples = 14268\nvalue = [[4595, 9673]\n[9759, 4509]\n[14182, 86]\n[14268, 0]]", fillcolor="#f4c9aa"] ;
62 -> 63 ;
64 [label="X[2] <= 0.984\nentropy = 0.076\nsamples = 5361\nvalue = [[115, 5246]\n[5250, 111]\n[5357, 4]\n[5361, 0]]", fillcolor="#e78d4c"] ;
63 -> 64 ;
65 [label="X[0] <= 0.374\nentropy = 0.338\nsamples = 529\nvalue = [[94, 435]\n[435, 94]\n[529, 0]\n[529, 0]]", fillcolor="#f0b58b"] ;
64 -> 65 ;
66 [label="entropy = 0.0\nsamples = 342\nvalue = [[0, 342]\n[342, 0]\n[342, 0]\n[342, 0]]", fillcolor="#e58139"] ;
65 -> 66 ;
67 [label="X[1] <= 0.715\nentropy = 0.5\nsamples = 187\nvalue = [[94, 93]\n[93, 94]\n[187, 0]\n[187, 0]]", fillcolor="#f5cfb3"] ;
65 -> 67 ;
68 [label="entropy = 0.437\nsamples = 112\nvalue = [[33, 79]\n[79, 33]\n[112, 0]\n[112, 0]]", fillcolor="#f3c5a4"] ;
67 -> 68 ;
69 [label="entropy = 0.347\nsamples = 75\nvalue = [[61, 14]\n[14, 61]\n[75, 0]\n[75, 0]]", fillcolor="#f0b78e"] ;
67 -> 69 ;
70 [label="X[2] <= 1.037\nentropy = 0.021\nsamples = 4832\nvalue = [[21, 4811]\n[4815, 17]\n[4828, 4]\n[4832, 0]]", fillcolor="#e6843e"] ;
64 -> 70 ;
71 [label="X[2] <= 0.99\nentropy = 0.012\nsamples = 4764\nvalue = [[11, 4753]\n[4754, 10]\n[4763, 1]\n[4764, 0]]", fillcolor="#e5833c"] ;
70 -> 71 ;
72 [label="entropy = 0.052\nsamples = 654\nvalue = [[9, 645]\n[645, 9]\n[654, 0]\n[654, 0]]", fillcolor="#e78946"] ;
71 -> 72 ;
73 [label="entropy = 0.003\nsamples = 4110\nvalue = [[2, 4108]\n[4109, 1]\n[4109, 1]\n[4110, 0]]", fillcolor="#e5813a"] ;
71 -> 73 ;
74 [label="X[0] <= 0.322\nentropy = 0.335\nsamples = 68\nvalue = [[10, 58]\n[61, 7]\n[65, 3]\n[68, 0]]", fillcolor="#f0b58b"] ;
70 -> 74 ;
75 [label="entropy = 0.086\nsamples = 39\nvalue = [[1, 38]\n[38, 1]\n[39, 0]\n[39, 0]]", fillcolor="#e88e4e"] ;
74 -> 75 ;
76 [label="entropy = 0.527\nsamples = 29\nvalue = [[9, 20]\n[23, 6]\n[26, 3]\n[29, 0]]", fillcolor="#f6d3ba"] ;
74 -> 76 ;
77 [label="X[3] <= 1.5\nentropy = 0.519\nsamples = 8907\nvalue = [[4480, 4427]\n[4509, 4398]\n[8825, 82]\n[8907, 0]]", fillcolor="#f6d2b8"] ;
63 -> 77 ;
78 [label="X[0] <= 0.638\nentropy = 0.41\nsamples = 5412\nvalue = [[4210, 1202]\n[1266, 4146]\n[5348, 64]\n[5412, 0]]", fillcolor="#f2c19d"] ;
77 -> 78 ;
79 [label="X[2] <= 0.992\nentropy = 0.496\nsamples = 1341\nvalue = [[572, 769]\n[771, 570]\n[1339, 2]\n[1341, 0]]", fillcolor="#f5ceb2"] ;
78 -> 79 ;
80 [label="entropy = 0.412\nsamples = 687\nvalue = [[510, 177]\n[177, 510]\n[687, 0]\n[687, 0]]", fillcolor="#f2c19d"] ;
79 -> 80 ;
81 [label="entropy = 0.231\nsamples = 654\nvalue = [[62, 592]\n[594, 60]\n[652, 2]\n[654, 0]]", fillcolor="#eca571"] ;
79 -> 81 ;
82 [label="X[4] <= 0.103\nentropy = 0.284\nsamples = 4071\nvalue = [[3638, 433]\n[495, 3576]\n[4009, 62]\n[4071, 0]]", fillcolor="#eead7e"] ;
78 -> 82 ;
83 [label="entropy = 0.18\nsamples = 3203\nvalue = [[3057, 146]\n[197, 3006]\n[3152, 51]\n[3203, 0]]", fillcolor="#eb9d65"] ;
82 -> 83 ;
84 [label="entropy = 0.485\nsamples = 868\nvalue = [[581, 287]\n[298, 570]\n[857, 11]\n[868, 0]]", fillcolor="#f5ccaf"] ;
82 -> 84 ;
85 [label="X[4] <= 0.056\nentropy = 0.203\nsamples = 3495\nvalue = [[270, 3225]\n[3243, 252]\n[3477, 18]\n[3495, 0]]", fillcolor="#eca16b"] ;
77 -> 85 ;
86 [label="X[2] <= 0.992\nentropy = 0.516\nsamples = 310\nvalue = [[208, 102]\n[112, 198]\n[300, 10]\n[310, 0]]", fillcolor="#f6d1b7"] ;
85 -> 86 ;
87 [label="entropy = 0.276\nsamples = 178\nvalue = [[159, 19]\n[21, 157]\n[176, 2]\n[178, 0]]", fillcolor="#eeac7c"] ;
86 -> 87 ;
88 [label="entropy = 0.544\nsamples = 132\nvalue = [[49, 83]\n[91, 41]\n[124, 8]\n[132, 0]]", fillcolor="#f6d5be"] ;
86 -> 88 ;
89 [label="X[4] <= 0.091\nentropy = 0.072\nsamples = 3185\nvalue = [[62, 3123]\n[3131, 54]\n[3177, 8]\n[3185, 0]]", fillcolor="#e78c4b"] ;
85 -> 89 ;
90 [label="entropy = 0.202\nsamples = 233\nvalue = [[18, 215]\n[216, 17]\n[232, 1]\n[233, 0]]", fillcolor="#eba06a"] ;
89 -> 90 ;
91 [label="entropy = 0.058\nsamples = 2952\nvalue = [[44, 2908]\n[2915, 37]\n[2945, 7]\n[2952, 0]]", fillcolor="#e78a47"] ;
89 -> 91 ;
92 [label="X[2] <= 0.989\nentropy = 0.56\nsamples = 5871\nvalue = [[5634, 237]\n[3950, 1921]\n[2257, 3614]\n[5772, 99]]", fillcolor="#f7d8c2"] ;
62 -> 92 ;
93 [label="X[3] <= 2.0\nentropy = 0.378\nsamples = 3069\nvalue = [[3027, 42]\n[2668, 401]\n[529, 2540]\n[2983, 86]]", fillcolor="#f1bc95"] ;
92 -> 93 ;
94 [label="X[0] <= 2.946\nentropy = 0.34\nsamples = 2971\nvalue = [[2970, 1]\n[2599, 372]\n[459, 2512]\n[2885, 86]]", fillcolor="#f0b68c"] ;
93 -> 94 ;
95 [label="X[2] <= 0.983\nentropy = 0.316\nsamples = 2550\nvalue = [[2549, 1]\n[2189, 361]\n[381, 2169]\n[2531, 19]]", fillcolor="#efb286"] ;
94 -> 95 ;
96 [label="entropy = 0.235\nsamples = 1716\nvalue = [[1716, 0]\n[1570, 146]\n[161, 1555]\n[1701, 15]]", fillcolor="#eda672"] ;
95 -> 96 ;
97 [label="entropy = 0.428\nsamples = 834\nvalue = [[833, 1]\n[619, 215]\n[220, 614]\n[830, 4]]", fillcolor="#f3c4a2"] ;
95 -> 97 ;
98 [label="X[0] <= 3.669\nentropy = 0.375\nsamples = 421\nvalue = [[421, 0]\n[410, 11]\n[78, 343]\n[354, 67]]", fillcolor="#f1bb94"] ;
94 -> 98 ;
99 [label="entropy = 0.293\nsamples = 377\nvalue = [[377, 0]\n[369, 8]\n[47, 330]\n[338, 39]]", fillcolor="#eeae80"] ;
98 -> 99 ;
100 [label="entropy = 0.545\nsamples = 44\nvalue = [[44, 0]\n[41, 3]\n[31, 13]\n[16, 28]]", fillcolor="#f6d6be"] ;
98 -> 100 ;
101 [label="X[4] <= 0.222\nentropy = 0.68\nsamples = 98\nvalue = [[57, 41]\n[69, 29]\n[70, 28]\n[98, 0]]", fillcolor="#fbebdf"] ;
93 -> 101 ;
102 [label="X[0] <= 2.52\nentropy = 0.616\nsamples = 58\nvalue = [[52, 6]\n[31, 27]\n[33, 25]\n[58, 0]]", fillcolor="#f9e1cf"] ;
101 -> 102 ;
103 [label="entropy = 0.534\nsamples = 32\nvalue = [[26, 6]\n[28, 4]\n[10, 22]\n[32, 0]]", fillcolor="#f6d4bb"] ;
102 -> 103 ;
104 [label="entropy = 0.258\nsamples = 26\nvalue = [[26, 0]\n[3, 23]\n[23, 3]\n[26, 0]]", fillcolor="#eda978"] ;
102 -> 104 ;
105 [label="X[0] <= 3.498\nentropy = 0.304\nsamples = 40\nvalue = [[5, 35]\n[38, 2]\n[37, 3]\n[40, 0]]", fillcolor="#efb083"] ;
101 -> 105 ;
106 [label="entropy = 0.199\nsamples = 38\nvalue = [[3, 35]\n[38, 0]\n[35, 3]\n[38, 0]]", fillcolor="#eba06a"] ;
105 -> 106 ;
107 [label="entropy = 0.0\nsamples = 2\nvalue = [[2, 0]\n[0, 2]\n[2, 0]\n[2, 0]]", fillcolor="#e58139"] ;
105 -> 107 ;
108 [label="X[0] <= 2.262\nentropy = 0.591\nsamples = 2802\nvalue = [[2607, 195]\n[1282, 1520]\n[1728, 1074]\n[2789, 13]]", fillcolor="#f8ddc9"] ;
92 -> 108 ;
109 [label="X[3] <= 1.5\nentropy = 0.503\nsamples = 1139\nvalue = [[984, 155]\n[315, 824]\n[979, 160]\n[1139, 0]]", fillcolor="#f5cfb4"] ;
108 -> 109 ;
110 [label="X[2] <= 0.999\nentropy = 0.363\nsamples = 977\nvalue = [[957, 20]\n[175, 802]\n[822, 155]\n[977, 0]]", fillcolor="#f1b992"] ;
109 -> 110 ;
111 [label="entropy = 0.47\nsamples = 423\nvalue = [[416, 7]\n[130, 293]\n[300, 123]\n[423, 0]]", fillcolor="#f4caac"] ;
110 -> 111 ;
112 [label="entropy = 0.221\nsamples = 554\nvalue = [[541, 13]\n[45, 509]\n[522, 32]\n[554, 0]]", fillcolor="#eca36f"] ;
110 -> 112 ;
113 [label="X[4] <= 0.114\nentropy = 0.355\nsamples = 162\nvalue = [[27, 135]\n[140, 22]\n[157, 5]\n[162, 0]]", fillcolor="#f0b890"] ;
109 -> 113 ;
114 [label="entropy = 0.447\nsamples = 22\nvalue = [[20, 2]\n[5, 17]\n[19, 3]\n[22, 0]]", fillcolor="#f3c6a6"] ;
113 -> 114 ;
115 [label="entropy = 0.154\nsamples = 140\nvalue = [[7, 133]\n[135, 5]\n[138, 2]\n[140, 0]]", fillcolor="#ea995f"] ;
113 -> 115 ;
116 [label="X[3] <= 1.5\nentropy = 0.551\nsamples = 1663\nvalue = [[1623, 40]\n[967, 696]\n[749, 914]\n[1650, 13]]", fillcolor="#f7d7bf"] ;
108 -> 116 ;
117 [label="X[0] <= 2.682\nentropy = 0.51\nsamples = 1487\nvalue = [[1480, 7]\n[915, 572]\n[591, 896]\n[1475, 12]]", fillcolor="#f5d0b6"] ;
116 -> 117 ;
118 [label="entropy = 0.516\nsamples = 699\nvalue = [[694, 5]\n[305, 394]\n[401, 298]\n[697, 2]]", fillcolor="#f6d1b7"] ;
117 -> 118 ;
119 [label="entropy = 0.423\nsamples = 788\nvalue = [[786, 2]\n[610, 178]\n[190, 598]\n[778, 10]]", fillcolor="#f3c3a0"] ;
117 -> 119 ;
120 [label="X[0] <= 2.775\nentropy = 0.525\nsamples = 176\nvalue = [[143, 33]\n[52, 124]\n[158, 18]\n[175, 1]]", fillcolor="#f6d2b9"] ;
116 -> 120 ;
121 [label="entropy = 0.669\nsamples = 51\nvalue = [[24, 27]\n[39, 12]\n[40, 11]\n[50, 1]]", fillcolor="#fae9dc"] ;
120 -> 121 ;
122 [label="entropy = 0.268\nsamples = 125\nvalue = [[119, 6]\n[13, 112]\n[118, 7]\n[125, 0]]", fillcolor="#eeab7a"] ;
120 -> 122 ;
}